<?xml version='1.0' encoding='utf-8'?>
<BIF VERSION="0.3">
  <NETWORK>
    <NAME>UNTITLED</NAME>
    <VARIABLE TYPE="nature">
      <NAME>Arched_Eyebrows</NAME>
      <OUTCOME>False</OUTCOME>
      <OUTCOME>True</OUTCOME>
      <PROPERTY>weight = None</PROPERTY>
    </VARIABLE>
    <VARIABLE TYPE="nature">
      <NAME>Big_Lips</NAME>
      <OUTCOME>False</OUTCOME>
      <OUTCOME>True</OUTCOME>
      <PROPERTY>weight = None</PROPERTY>
    </VARIABLE>
    <VARIABLE TYPE="nature">
      <NAME>Big_Nose</NAME>
      <OUTCOME>False</OUTCOME>
      <OUTCOME>True</OUTCOME>
      <PROPERTY>weight = None</PROPERTY>
    </VARIABLE>
    <VARIABLE TYPE="nature">
      <NAME>Double_Chin</NAME>
      <OUTCOME>False</OUTCOME>
      <OUTCOME>True</OUTCOME>
      <PROPERTY>weight = None</PROPERTY>
    </VARIABLE>
    <VARIABLE TYPE="nature">
      <NAME>No_Beard</NAME>
      <OUTCOME>False</OUTCOME>
      <OUTCOME>True</OUTCOME>
      <PROPERTY>weight = None</PROPERTY>
    </VARIABLE>
    <DEFINITION>
      <FOR>Arched_Eyebrows</FOR>
      <GIVEN>Big_Lips</GIVEN>
      <GIVEN>Big_Nose</GIVEN>
      <GIVEN>Double_Chin</GIVEN>
      <GIVEN>No_Beard</GIVEN>
      <TABLE>0.9632178258376342 0.03678217416236586 0.7485625616474607 0.2514374383525393 0.96875 0.03125 0.9119754350051177 0.08802456499488229 0.933708482020313 0.06629151797968708 0.7950907150480256 0.20490928495197439 0.9366812227074236 0.06331877729257641 0.913839687781447 0.08616031221855298 0.9228336495888678 0.07716635041113219 0.45994326893590926 0.5400567310640908 0.9545454545454546 0.045454545454545456 0.4817073170731707 0.5182926829268293 0.8522823929685285 0.1477176070314715 0.5584273182957393 0.44157268170426067 0.8861788617886179 0.11382113821138211 0.7433004231311706 0.2566995768688293 </TABLE>
    </DEFINITION>
    <DEFINITION>
      <FOR>Big_Lips</FOR>
      <TABLE>0.7590895128094858 0.24091048719051422 </TABLE>
    </DEFINITION>
    <DEFINITION>
      <FOR>Big_Nose</FOR>
      <GIVEN>Big_Lips</GIVEN>
      <GIVEN>Double_Chin</GIVEN>
      <TABLE>0.8105918261505369 0.1894081738494631 0.2076456719434153 0.7923543280565847 0.7362692921766897 0.26373070782331026 0.11390079608083283 0.8860992039191672 </TABLE>
    </DEFINITION>
    <DEFINITION>
      <FOR>Double_Chin</FOR>
      <TABLE>0.9534865147140137 0.04651348528598636 </TABLE>
    </DEFINITION>
    <DEFINITION>
      <FOR>No_Beard</FOR>
      <GIVEN>Big_Lips</GIVEN>
      <GIVEN>Big_Nose</GIVEN>
      <GIVEN>Double_Chin</GIVEN>
      <TABLE>0.1280351580117683 0.8719648419882318 0.20762368207623683 0.7923763179237632 0.3270491067420774 0.6729508932579226 0.2920297555791711 0.7079702444208289 0.05713975929740865 0.9428602407025913 0.11827956989247312 0.8817204301075269 0.35586721824235695 0.644132781757643 0.5100207325501037 0.48997926744989634 </TABLE>
    </DEFINITION>
  </NETWORK>
</BIF>
